{"learner":{"attributes":{"scikit_learn":"{\"_estimator_type\": \"regressor\"}"},"feature_names":[],"feature_types":[],"gradient_booster":{"model":{"gbtree_model_param":{"num_parallel_tree":"1","num_trees":"20"},"iteration_indptr":[0,1,2,3,4,5,6,7,8,9,10,11,12,13,14,15,16,17,18,19,20],"tree_info":[0,0,0,0,0,0,0,0,0,0,0,0,0,0,0,0,0,0,0,0],"trees":[{"base_weights":[2.9654053E-9,-5.5822796E-1,4.2231157E-1,-8.398277E-1,-3.8734546E-1,1.9452566E-1,7.2515535E-1,-9.4630845E-2,-5.505183E-2,-5.451506E-2,-1.6986107E-2,-9.2483556E-4,4.967556E-2,4.1551895E-2,8.7666474E-2],"categories":[],"categories_nodes":[],"categories_segments":[],"categories_sizes":[],"default_left":[0,0,0,0,0,0,0,0,0,0,0,0,0,0,0],"id":0,"left_children":[1,3,5,7,9,11,13,-1,-1,-1,-1,-1,-1,-1,-1],"loss_changes":[4.762072E1,3.8611794E0,7.7920475E0,4.6482658E-1,1.8293285E0,4.130897E0,1.9344559E0,0E0,0E0,0E0,0E0,0E0,0E0,0E0,0E0],"parents":[2147483647,0,0,1,1,2,2,3,3,4,4,5,5,6,6],"right_children":[2,4,6,8,10,12,14,-1,-1,-1,-1,-1,-1,-1,-1],"split_conditions":[3.9718282E-1,3.6097142E-1,7.0737636E-1,2.3936944E-1,1.9929834E-1,5.8612305E-1,3.1968164E-1,-9.4630845E-2,-5.505183E-2,-5.451506E-2,-1.6986107E-2,-9.2483556E-4,4.967556E-2,4.1551895E-2,8.7666474E-2],"split_indices":[1,0,1,1,1,0,0,0,0,0,0,0,0,0,0],"split_type":[0,0,0,0,0,0,0,0,0,0,0,0,0,0,0],"sum_hessian":[2E2,8.6E1,1.14E2,3.1E1,5.5E1,6.6E1,4.8E1,2.1E1,1E1,3.1E1,2.4E1,4E1,2.6E1,1.7E1,3.1E1],"tree_param":{"num_deleted":"0","num_feature":"10","num_nodes":"15","size_leaf_vector":"1"}},{"base_weights":[-2.1501708E-4,-4.5745438E-1,4.221891E-1,-6.367857E-1,-2.1743865E-1,1.7714424E-1,6.334401E-1,-8.0376945E-2,-3.8760785E-2,-3.5231095E-2,3.2177716E-3,-4.804936E-3,4.2310603E-2,4.043739E-2,8.1848495E-2],"categories":[],"categories_nodes":[],"categories_segments":[],"categories_sizes":[],"default_left":[0,0,0,0,0,0,0,0,0,0,0,0,0,0,0],"id":1,"left_children":[1,3,5,7,9,11,13,-1,-1,-1,-1,-1,-1,-1,-1],"loss_changes":[3.901423E1,4.036644E0,5.3232155E0,1.9769306E0,1.4589884E0,2.789781E0,2.0427265E0,0E0,0E0,0E0,0E0,0E0,0E0,0E0,0E0],"parents":[2147483647,0,0,1,1,2,2,3,3,4,4,5,5,6,6],"right_children":[2,4,6,8,10,12,14,-1,-1,-1,-1,-1,-1,-1,-1],"split_conditions":[4.5886058E-1,5.715298E-1,4.9614468E-1,2.2650039E-1,2.7874717E-1,6.917626E-1,6.6071725E-1,-8.0376945E-2,-3.8760785E-2,-3.5231095E-2,3.2177716E-3,-4.804936E-3,4.2310603E-2,4.043739E-2,8.1848495E-2],"split_indices":[1,0,0,1,1,1,1,0,0,0,0,0,0,0,0],"split_type":[0,0,0,0,0,0,0,0,0,0,0,0,0,0,0],"sum_hessian":[2E2,9.6E1,1.04E2,5.4E1,4.2E1,4.9E1,5.5E1,3.1E1,2.3E1,2.7E1,1.5E1,2.6E1,2.3E1,2.6E1,2.9E1],"tree_param":{"num_deleted":"0","num_feature":"10","num_nodes":"15","size_leaf_vector":"1"}},{"base_weights":[-1.505133E-4,-4.5724154E-1,3.4565008E-1,-6.969629E-1,-3.1209287E-1,1.6029288E-1,5.920436E-1,-7.811471E-2,-4.652341E-2,-4.2127505E-2,-9.450118E-3,2.4164687E-3,4.789859E-2,3.820101E-2,7.490335E-2],"categories":[],"categories_nodes":[],"categories_segments":[],"categories_sizes":[],"default_left":[0,0,0,0,0,0,0,0,0,0,0,0,0,0,0],"id":2,"left_children":[1,3,5,7,9,11,13,-1,-1,-1,-1,-1,-1,-1,-1],"loss_changes":[3.1928577E1,2.8096676E0,5.1572437E0,2.608366E-1,1.2905884E0,2.895094E0,1.3295441E0,0E0,0E0,0E0,0E0,0E0,0E0,0E0,0E0],"parents":[2147483647,0,0,1,1,2,2,3,3,4,4,5,5,6,6],"right_children":[2,4,6,8,10,12,14,-1,-1,-1,-1,-1,-1,-1,-1],"split_conditions":[3.9718282E-1,3.6097142E-1,7.0737636E-1,2.3936944E-1,2.3632066E-1,7.2745204E-1,5.0367695E-1,-7.811471E-2,-4.652341E-2,-4.2127505E-2,-9.450118E-3,2.4164687E-3,4.789859E-2,3.820101E-2,7.490335E-2],"split_indices":[1,0,1,1,1,0,0,0,0,0,0,0,0,0,0],"split_type":[0,0,0,0,0,0,0,0,0,0,0,0,0,0,0],"sum_hessian":[2E2,8.6E1,1.14E2,3.1E1,5.5E1,6.6E1,4.8E1,2.1E1,1E1,3.6E1,1.9E1,4.7E1,1.9E1,2.2E1,2.6E1],"tree_param":{"num_deleted":"0","num_feature":"10","num_nodes":"15","size_leaf_vector":"1"}},{"base_weights":[-1.9913586E-4,-3.752604E-1,3.4628794E-1,-5.261762E-1,-1.7350161E-1,1.459676E-1,5.2574337E-1,-6.626012E-2,-3.2235216E-2,-2.8238332E-2,2.788523E-3,-1.4564127E-3,3.9552E-2,2.624504E-2,6.366258E-2],"categories":[],"categories_nodes":[],"categories_segments":[],"categories_sizes":[],"default_left":[0,0,0,0,0,0,0,0,0,0,0,0,0,0,0],"id":3,"left_children":[1,3,5,7,9,11,13,-1,-1,-1,-1,-1,-1,-1,-1],"loss_changes":[2.625068E1,2.8622198E0,3.6978598E0,1.3157768E0,9.507501E-1,2.0488753E0,1.4386187E0,0E0,0E0,0E0,0E0,0E0,0E0,0E0,0E0],"parents":[2147483647,0,0,1,1,2,2,3,3,4,4,5,5,6,6],"right_children":[2,4,6,8,10,12,14,-1,-1,-1,-1,-1,-1,-1,-1],"split_conditions":[4.5886058E-1,5.715298E-1,5.0367695E-1,2.2650039E-1,2.7874717E-1,7.575966E-1,5.9202343E-1,-6.626012E-2,-3.2235216E-2,-2.8238332E-2,2.788523E-3,-1.4564127E-3,3.9552E-2,2.624504E-2,6.366258E-2],"split_indices":[1,0,0,1,1,1,1,0,0,0,0,0,0,0,0],"split_type":[0,0,0,0,0,0,0,0,0,0,0,0,0,0,0],"sum_hessian":[2E2,9.6E1,1.04E2,5.4E1,4.2E1,5E1,5.4E1,3.1E1,2.3E1,2.7E1,1.5E1,3.1E1,1.9E1,1.7E1,3.7E1],"tree_param":{"num_deleted":"0","num_feature":"10","num_nodes":"15","size_leaf_vector":"1"}},{"base_weights":[-1.5902756E-4,-3.6350366E-1,2.9181576E-1,-4.7926223E-1,-1.3871431E-1,1.21251546E-1,4.7276896E-1,-5.7691902E-2,-3.128078E-2,-4.021429E-2,-6.245607E-3,-1.2746184E-2,2.6205266E-2,2.505588E-2,5.961114E-2],"categories":[],"categories_nodes":[],"categories_segments":[],"categories_sizes":[],"default_left":[0,0,0,0,0,0,0,0,0,0,0,0,0,0,0],"id":4,"left_children":[1,3,5,7,9,11,13,-1,-1,-1,-1,-1,-1,-1,-1],"loss_changes":[2.1429655E1,2.2754364E0,3.3994608E0,7.786045E-1,6.1771894E-1,2.0995297E0,1.3306675E0,0E0,0E0,0E0,0E0,0E0,0E0,0E0,0E0],"parents":[2147483647,0,0,1,1,2,2,3,3,4,4,5,5,6,6],"right_children":[2,4,6,8,10,12,14,-1,-1,-1,-1,-1,-1,-1,-1],"split_conditions":[4.2178386E-1,6.284588E-1,6.8041444E-1,2.251631E-1,5.4096486E-2,3.8181478E-1,3.1968164E-1,-5.7691902E-2,-3.128078E-2,-4.021429E-2,-6.245607E-3,-1.2746184E-2,2.6205266E-2,2.505588E-2,5.961114E-2],"split_indices":[1,0,1,1,1,0,0,0,0,0,0,0,0,0,0],"split_type":[0,0,0,0,0,0,0,0,0,0,0,0,0,0,0],"sum_hessian":[2E2,8.9E1,1.11E2,5.8E1,3.1E1,5.8E1,5.3E1,3.5E1,2.3E1,6E0,2.5E1,2.1E1,3.7E1,2E1,3.3E1],"tree_param":{"num_deleted":"0","num_feature":"10","num_nodes":"15","size_leaf_vector":"1"}},{"base_weights":[-3.287371E-4,-3.0736765E-1,2.8331986E-1,-5.823673E-1,-2.1893618E-1,1.1669458E-1,4.326757E-1,-5.9967984E-2,-1.0074645E-2,-3.2565843E-2,-5.695432E-3,-1.7457831E-3,3.2550372E-2,2.1291401E-2,5.253871E-2],"categories":[],"categories_nodes":[],"categories_segments":[],"categories_sizes":[],"default_left":[0,0,0,0,0,0,0,0,0,0,0,0,0,0,0],"id":5,"left_children":[1,3,5,7,9,11,13,-1,-1,-1,-1,-1,-1,-1,-1],"loss_changes":[1.7592405E1,2.2314053E0,2.5625877E0,1.3135958E-1,1.2779827E0,1.4343073E0,1.0087309E0,0E0,0E0,0E0,0E0,0E0,0E0,0E0,0E0],"parents":[2147483647,0,0,1,1,2,2,3,3,4,4,5,5,6,6],"right_children":[2,4,6,8,10,12,14,-1,-1,-1,-1,-1,-1,-1,-1],"split_conditions":[4.5886058E-1,3.028729E-1,5.0367695E-1,3.889214E-1,2.4714674E-1,7.575966E-1,5.9202343E-1,-5.9967984E-2,-1.0074645E-2,-3.2565843E-2,-5.695432E-3,-1.7457831E-3,3.2550372E-2,2.1291401E-2,5.253871E-2],"split_indices":[1,0,0,1,1,1,1,0,0,0,0,0,0,0,0],"split_type":[0,0,0,0,0,0,0,0,0,0,0,0,0,0,0],"sum_hessian":[2E2,9.6E1,1.04E2,2.2E1,7.4E1,5E1,5.4E1,2.1E1,1E0,4.4E1,3E1,3.1E1,1.9E1,1.7E1,3.7E1],"tree_param":{"num_deleted":"0","num_feature":"10","num_nodes":"15","size_leaf_vector":"1"}},{"base_weights":[-3.1409453E-4,-2.7774742E-1,2.5598443E-1,-5.271759E-1,-1.9755271E-1,1.1889625E-1,4.044035E-1,-5.4243762E-2,-9.570914E-3,-3.2183874E-2,-8.075646E-3,-3.7697412E-3,2.7683625E-2,3.095645E-2,5.7029307E-2],"categories":[],"categories_nodes":[],"categories_segments":[],"categories_sizes":[],"default_left":[0,0,0,0,0,0,0,0,0,0,0,0,0,0,0],"id":6,"left_children":[1,3,5,7,9,11,13,-1,-1,-1,-1,-1,-1,-1,-1],"loss_changes":[1.4363355E1,1.8361306E0,2.0883002E0,9.9536896E-2,1.0627205E0,1.3954508E0,6.100979E-1,0E0,0E0,0E0,0E0,0E0,0E0,0E0,0E0],"parents":[2147483647,0,0,1,1,2,2,3,3,4,4,5,5,6,6],"right_children":[2,4,6,8,10,12,14,-1,-1,-1,-1,-1,-1,-1,-1],"split_conditions":[4.5886058E-1,3.028729E-1,5.2828246E-1,3.889214E-1,1.881545E-1,6.882786E-1,7.726163E-1,-5.4243762E-2,-9.570914E-3,-3.2183874E-2,-8.075646E-3,-3.7697412E-3,2.7683625E-2,3.095645E-2,5.7029307E-2],"split_indices":[1,0,0,1,1,1,1,0,0,0,0,0,0,0,0],"split_type":[0,0,0,0,0,0,0,0,0,0,0,0,0,0,0],"sum_hessian":[2E2,9.6E1,1.04E2,2.2E1,7.4E1,5.5E1,4.9E1,2.1E1,1E0,3.5E1,3.9E1,2.8E1,2.7E1,3.3E1,1.6E1],"tree_param":{"num_deleted":"0","num_feature":"10","num_nodes":"15","size_leaf_vector":"1"}},{"base_weights":[-2.4376105E-4,-2.7794868E-1,2.0984817E-1,-3.473496E-1,-4.329103E-2,2.4773553E-2,3.1205472E-1,-3.788699E-2,-6.7528696E-3,-2.6937133E-2,2.5749712E-3,-1.8338311E-2,1.7365541E-2,1.3078711E-2,4.134045E-2],"categories":[],"categories_nodes":[],"categories_segments":[],"categories_sizes":[],"default_left":[0,0,0,0,0,0,0,0,0,0,0,0,0,0,0],"id":7,"left_children":[1,3,5,7,9,11,13,-1,-1,-1,-1,-1,-1,-1,-1],"loss_changes":[1.1785382E1,1.4017982E0,2.1675906E0,5.6535816E-1,3.3472002E-1,1.3334568E0,1.3054175E0,0E0,0E0,0E0,0E0,0E0,0E0,0E0,0E0],"parents":[2147483647,0,0,1,1,2,2,3,3,4,4,5,5,6,6],"right_children":[2,4,6,8,10,12,14,-1,-1,-1,-1,-1,-1,-1,-1],"split_conditions":[3.9718282E-1,7.530612E-1,5.8332E-1,9.50135E-1,5.0336283E-2,3.0770186E-1,3.281461E-1,-3.788699E-2,-6.7528696E-3,-2.6937133E-2,2.5749712E-3,-1.8338311E-2,1.7365541E-2,1.3078711E-2,4.134045E-2],"split_indices":[1,0,1,2,1,2,0,0,0,0,0,0,0,0,0],"split_type":[0,0,0,0,0,0,0,0,0,0,0,0,0,0,0],"sum_hessian":[2E2,8.6E1,1.14E2,6.6E1,2E1,4.1E1,7.3E1,5.9E1,7E0,4E0,1.6E1,1.7E1,2.4E1,2.7E1,4.6E1],"tree_param":{"num_deleted":"0","num_feature":"10","num_nodes":"15","size_leaf_vector":"1"}},{"base_weights":[-2.9676233E-4,-2.5094694E-1,1.8932813E-1,-4.0808934E-1,-1.566701E-1,9.2672534E-2,3.615194E-1,-4.9563464E-2,-2.7582908E-2,-2.9592851E-2,-8.291799E-3,1.3675026E-3,3.8312115E-2,2.7802918E-2,4.877005E-2],"categories":[],"categories_nodes":[],"categories_segments":[],"categories_sizes":[],"default_left":[0,0,0,0,0,0,0,0,0,0,0,0,0,0,0],"id":8,"left_children":[1,3,5,7,9,11,13,-1,-1,-1,-1,-1,-1,-1,-1],"loss_changes":[9.600943E0,1.2249603E0,1.8804708E0,2.3381042E-1,5.50616E-1,1.7156146E0,2.963357E-1,0E0,0E0,0E0,0E0,0E0,0E0,0E0,0E0],"parents":[2147483647,0,0,1,1,2,2,3,3,4,4,5,5,6,6],"right_children":[2,4,6,8,10,12,14,-1,-1,-1,-1,-1,-1,-1,-1],"split_conditions":[3.9718282E-1,3.6097142E-1,7.575966E-1,6.7252666E-1,1.2167514E-1,8.1585354E-1,5.815812E-1,-4.9563464E-2,-2.7582908E-2,-2.9592851E-2,-8.291799E-3,1.3675026E-3,3.8312115E-2,2.7802918E-2,4.877005E-2],"split_indices":[1,0,1,2,1,0,2,0,0,0,0,0,0,0,0],"split_type":[0,0,0,0,0,0,0,0,0,0,0,0,0,0,0],"sum_hessian":[2E2,8.6E1,1.14E2,3.1E1,5.5E1,7.4E1,4E1,1.7E1,1.4E1,1.8E1,3.7E1,5.9E1,1.5E1,2.6E1,1.4E1],"tree_param":{"num_deleted":"0","num_feature":"10","num_nodes":"15","size_leaf_vector":"1"}},{"base_weights":[-2.609936E-4,-2.0599031E-1,1.897962E-1,-3.024498E-1,-7.782144E-2,2.4554104E-2,2.756536E-1,-3.9720513E-2,-1.7285522E-2,3.6726636E-3,-1.7003562E-2,-6.5289265E-3,2.7366012E-2,1.6055612E-2,3.828753E-2],"categories":[],"categories_nodes":[],"categories_segments":[],"categories_sizes":[],"default_left":[0,0,0,0,0,0,0,0,0,0,0,0,0,0,0],"id":9,"left_children":[1,3,5,7,9,11,13,-1,-1,-1,-1,-1,-1,-1,-1],"loss_changes":[7.8982644E0,1.1756835E0,1.4828937E0,6.0672855E-1,4.60452E-1,8.459465E-1,7.900524E-1,0E0,0E0,0E0,0E0,0E0,0E0,0E0,0E0],"parents":[2147483647,0,0,1,1,2,2,3,3,4,4,5,5,6,6],"right_children":[2,4,6,8,10,12,14,-1,-1,-1,-1,-1,-1,-1,-1],"split_conditions":[4.5886058E-1,5.715298E-1,3.3181393E-1,2.251631E-1,4.0766048E-1,8.518759E-1,6.6071725E-1,-3.9720513E-2,-1.7285522E-2,3.6726636E-3,-1.7003562E-2,-6.5289265E-3,2.7366012E-2,1.6055612E-2,3.828753E-2],"split_indices":[1,0,0,1,8,1,1,0,0,0,0,0,0,0,0],"split_type":[0,0,0,0,0,0,0,0,0,0,0,0,0,0,0],"sum_hessian":[2E2,9.6E1,1.04E2,5.4E1,4.2E1,3.6E1,6.8E1,3E1,2.4E1,1.9E1,2.3E1,2.7E1,9E0,3.4E1,3.4E1],"tree_param":{"num_deleted":"0","num_feature":"10","num_nodes":"15","size_leaf_vector":"1"}},{"base_weights":[-2.10816E-4,-1.428539E-1,2.2655782E-1,-2.157486E-1,4.8671145E-2,8.538769E-2,3.0390534E-1,-3.2963853E-2,-1.2219282E-2,-8.257733E-3,1.9249761E-2,-7.032215E-5,2.4903076E-2,2.1885153E-2,4.1093912E-2],"categories":[],"categories_nodes":[],"categories_segments":[],"categories_sizes":[],"default_left":[0,0,0,0,0,0,0,0,0,0,0,0,0,0,0],"id":10,"left_children":[1,3,5,7,9,11,13,-1,-1,-1,-1,-1,-1,-1,-1],"loss_changes":[6.5341067E0,1.7416852E0,8.257446E-1,9.186754E-1,6.76591E-1,4.087324E-1,3.6524677E-1,0E0,0E0,0E0,0E0,0E0,0E0,0E0,0E0],"parents":[2147483647,0,0,1,1,2,2,3,3,4,4,5,5,6,6],"right_children":[2,4,6,8,10,12,14,-1,-1,-1,-1,-1,-1,-1,-1],"split_conditions":[5.69446E-1,7.1087986E-1,3.281461E-1,2.251631E-1,3.0320102E-1,8.518759E-1,5.4545665E-1,-3.2963853E-2,-1.2219282E-2,-8.257733E-3,1.9249761E-2,-7.032215E-5,2.4903076E-2,2.1885153E-2,4.1093912E-2],"split_indices":[1,0,0,1,1,1,2,0,0,0,0,0,0,0,0],"split_type":[0,0,0,0,0,0,0,0,0,0,0,0,0,0,0],"sum_hessian":[2E2,1.23E2,7.7E1,8.9E1,3.4E1,2.8E1,4.9E1,3.9E1,5E1,1.8E1,1.6E1,1.9E1,9E0,2.9E1,2E1],"tree_param":{"num_deleted":"0","num_feature":"10","num_nodes":"15","size_leaf_vector":"1"}},{"base_weights":[7.705368E-5,-1.4771248E-1,1.8034695E-1,-2.1499437E-1,2.5108285E-2,4.010912E-2,2.594459E-1,-2.9749874E-2,-1.2925855E-2,-7.4754194E-3,1.5884249E-2,-3.60988E-3,2.2661801E-2,1.7652359E-2,3.6184244E-2],"categories":[],"categories_nodes":[],"categories_segments":[],"categories_sizes":[],"default_left":[0,0,0,0,0,0,0,0,0,0,0,0,0,0,0],"id":11,"left_children":[1,3,5,7,9,11,13,-1,-1,-1,-1,-1,-1,-1,-1],"loss_changes":[5.381682E0,1.2960739E0,9.9902654E-1,5.274317E-1,4.3923506E-1,4.914381E-1,4.2860198E-1,0E0,0E0,0E0,0E0,0E0,0E0,0E0,0E0],"parents":[2147483647,0,0,1,1,2,2,3,3,4,4,5,5,6,6],"right_children":[2,4,6,8,10,12,14,-1,-1,-1,-1,-1,-1,-1,-1],"split_conditions":[5.151604E-1,7.1087986E-1,3.281461E-1,2.251631E-1,3.0320102E-1,8.518759E-1,5.4545665E-1,-2.9749874E-2,-1.2925855E-2,-7.4754194E-3,1.5884249E-2,-3.60988E-3,2.2661801E-2,1.7652359E-2,3.6184244E-2],"split_indices":[1,0,0,1,1,1,2,0,0,0,0,0,0,0,0],"split_type":[0,0,0,0,0,0,0,0,0,0,0,0,0,0,0],"sum_hessian":[2E2,1.1E2,9E1,7.9E1,3.1E1,3.3E1,5.7E1,3.9E1,4E1,1.8E1,1.3E1,2.4E1,9E0,3.3E1,2.4E1],"tree_param":{"num_deleted":"0","num_feature":"10","num_nodes":"15","size_leaf_vector":"1"}},{"base_weights":[2.6150604E-4,-1.1312943E-1,1.9639364E-1,-2.6760712E-1,-4.2430136E-2,8.162438E-2,2.6058823E-1,-3.497746E-2,-1.583813E-2,-1.7359307E-2,3.7962184E-3,1.1750417E-3,2.062225E-2,2.1614226E-2,4.0342417E-2],"categories":[],"categories_nodes":[],"categories_segments":[],"categories_sizes":[],"default_left":[0,0,0,0,0,0,0,0,0,0,0,0,0,0,0],"id":12,"left_children":[1,3,5,7,9,11,13,-1,-1,-1,-1,-1,-1,-1,-1],"loss_changes":[4.4923787E0,1.3865927E0,5.239296E-1,3.035946E-1,9.450499E-1,2.413494E-1,2.1118164E-1,0E0,0E0,0E0,0E0,0E0,0E0,0E0,0E0],"parents":[2147483647,0,0,1,1,2,2,3,3,4,4,5,5,6,6],"right_children":[2,4,6,8,10,12,14,-1,-1,-1,-1,-1,-1,-1,-1],"split_conditions":[5.8332E-1,3.4429574E-1,3.281461E-1,6.4269835E-1,3.7289026E-1,8.518759E-1,9.0288115E-1,-3.497746E-2,-1.583813E-2,-1.7359307E-2,3.7962184E-3,1.1750417E-3,2.062225E-2,2.1614226E-2,4.0342417E-2],"split_indices":[1,0,0,2,2,1,0,0,0,0,0,0,0,0,0],"split_type":[0,0,0,0,0,0,0,0,0,0,0,0,0,0,0],"sum_hessian":[2E2,1.27E2,7.3E1,3.9E1,8.8E1,2.7E1,4.6E1,2.1E1,1.8E1,3.3E1,5.5E1,1.8E1,9E0,3.7E1,9E0],"tree_param":{"num_deleted":"0","num_feature":"10","num_nodes":"15","size_leaf_vector":"1"}},{"base_weights":[3.3173247E-4,-1.889342E-1,1.02908455E-1,-2.736665E-1,-1.12393185E-1,-2.6394308E-2,1.7800395E-1,-3.0009774E-2,-7.0157053E-4,-2.178514E-2,-3.740466E-3,-1.1661866E-2,1.5029967E-2,1.4212255E-2,3.999438E-2],"categories":[],"categories_nodes":[],"categories_segments":[],"categories_sizes":[],"default_left":[0,0,0,0,0,0,0,0,0,0,0,0,0,0,0],"id":13,"left_children":[1,3,5,7,9,11,13,-1,-1,-1,-1,-1,-1,-1,-1],"loss_changes":[3.9217129E0,4.297123E-1,1.2767155E0,2.3047543E-1,3.002694E-1,7.986906E-1,6.041305E-1,0E0,0E0,0E0,0E0,0E0,0E0,0E0,0E0],"parents":[2147483647,0,0,1,1,2,2,3,3,4,4,5,5,6,6],"right_children":[2,4,6,8,10,12,14,-1,-1,-1,-1,-1,-1,-1,-1],"split_conditions":[3.16005E-1,4.4785836E-1,3.0770186E-1,9.50135E-1,3.7289026E-1,6.882786E-1,9.0288115E-1,-3.0009774E-2,-7.0157053E-4,-2.178514E-2,-3.740466E-3,-1.1661866E-2,1.5029967E-2,1.4212255E-2,3.999438E-2],"split_indices":[1,0,2,2,2,1,0,0,0,0,0,0,0,0,0],"split_type":[0,0,0,0,0,0,0,0,0,0,0,0,0,0,0],"sum_hessian":[2E2,7E1,1.3E2,3.2E1,3.8E1,4.8E1,8.2E1,2.9E1,3E0,1.5E1,2.3E1,3.2E1,1.6E1,7.2E1,1E1],"tree_param":{"num_deleted":"0","num_feature":"10","num_nodes":"15","size_leaf_vector":"1"}},{"base_weights":[3.0519092E-4,-1.7083289E-1,9.305708E-2,-2.522046E-1,-1.0514127E-1,-2.3686118E-2,1.608566E-1,-2.7829945E-2,-6.4895453E-4,-1.94395E-2,-3.3820083E-3,-1.2081694E-2,1.1157483E-2,1.3130771E-2,3.892244E-2],"categories":[],"categories_nodes":[],"categories_segments":[],"categories_sizes":[],"default_left":[0,0,0,0,0,0,0,0,0,0,0,0,0,0,0],"id":14,"left_children":[1,3,5,7,9,11,13,-1,-1,-1,-1,-1,-1,-1,-1],"loss_changes":[3.2064466E0,3.53009E-1,1.0406926E0,1.9696283E-1,2.5441852E-1,6.572425E-1,5.089772E-1,0E0,0E0,0E0,0E0,0E0,0E0,0E0,0E0],"parents":[2147483647,0,0,1,1,2,2,3,3,4,4,5,5,6,6],"right_children":[2,4,6,8,10,12,14,-1,-1,-1,-1,-1,-1,-1,-1],"split_conditions":[3.16005E-1,4.0455183E-1,3.0770186E-1,9.50135E-1,3.7289026E-1,6.6027653E-1,9.107583E-1,-2.7829945E-2,-6.4895453E-4,-1.94395E-2,-3.3820083E-3,-1.2081694E-2,1.1157483E-2,1.3130771E-2,3.892244E-2],"split_indices":[1,0,2,2,2,1,0,0,0,0,0,0,0,0,0],"split_type":[0,0,0,0,0,0,0,0,0,0,0,0,0,0,0],"sum_hessian":[2E2,7E1,1.3E2,3E1,4E1,4.8E1,8.2E1,2.7E1,3E0,1.7E1,2.3E1,2.8E1,2E1,7.4E1,8E0],"tree_param":{"num_deleted":"0","num_feature":"10","num_nodes":"15","size_leaf_vector":"1"}},{"base_weights":[2.7382758E-4,-9.124181E-2,1.457567E-1,-2.4844822E-1,-4.4921998E-2,8.544469E-2,2.3444124E-1,-4.420504E-3,-2.7118921E-2,-1.1569536E-2,4.664676E-3,5.0314553E-3,2.8401915E-2,-3.0862392E-4,2.6000082E-2],"categories":[],"categories_nodes":[],"categories_segments":[],"categories_sizes":[],"default_left":[0,0,0,0,0,0,0,0,0,0,0,0,0,0,0],"id":15,"left_children":[1,3,5,7,9,11,13,-1,-1,-1,-1,-1,-1,-1,-1],"loss_changes":[2.6894047E0,8.9177895E-1,3.971702E-1,1.1806333E-1,6.340178E-1,3.2055518E-1,1.890068E-1,0E0,0E0,0E0,0E0,0E0,0E0,0E0,0E0],"parents":[2147483647,0,0,1,1,2,2,3,3,4,4,5,5,6,6],"right_children":[2,4,6,8,10,12,14,-1,-1,-1,-1,-1,-1,-1,-1],"split_conditions":[5.69446E-1,2.71719E-1,8.1671137E-1,9.142453E-2,5.62094E-1,9.0288115E-1,8.132369E-2,-4.420504E-3,-2.7118921E-2,-1.1569536E-2,4.664676E-3,5.0314553E-3,2.8401915E-2,-3.0862392E-4,2.6000082E-2],"split_indices":[1,0,1,3,2,0,0,0,0,0,0,0,0,0,0],"split_type":[0,0,0,0,0,0,0,0,0,0,0,0,0,0,0],"sum_hessian":[2E2,1.23E2,7.7E1,2.7E1,9.6E1,4.7E1,3E1,3E0,2.4E1,5.4E1,4.2E1,4.1E1,6E0,3E0,2.7E1],"tree_param":{"num_deleted":"0","num_feature":"10","num_nodes":"15","size_leaf_vector":"1"}},{"base_weights":[3.493458E-4,-1.53122E-1,7.482552E-2,-1.7127751E-1,5.697936E-2,2.2055423E-2,1.9240488E-1,-1.8695302E-2,4.1678906E-3,8.907481E-3,1.866293E-3,-2.2224186E-3,1.8921515E-2,1.2164102E-2,3.2524396E-2],"categories":[],"categories_nodes":[],"categories_segments":[],"categories_sizes":[],"default_left":[0,0,0,0,0,0,0,0,0,0,0,0,0,0,0],"id":16,"left_children":[1,3,5,7,9,11,13,-1,-1,-1,-1,-1,-1,-1,-1],"loss_changes":[2.308879E0,2.6151597E-1,8.395919E-1,2.1142232E-1,5.7163015E-3,7.073731E-1,3.552457E-1,0E0,0E0,0E0,0E0,0E0,0E0,0E0,0E0],"parents":[2147483647,0,0,1,1,2,2,3,3,4,4,5,5,6,6],"right_children":[2,4,6,8,10,12,14,-1,-1,-1,-1,-1,-1,-1,-1],"split_conditions":[2.7874717E-1,9.1545546E-1,7.1162057E-1,9.6606207E-1,1.3665201E-1,8.518759E-1,7.5304997E-1,-1.8695302E-2,4.1678906E-3,8.907481E-3,1.866293E-3,-2.2224186E-3,1.8921515E-2,1.2164102E-2,3.2524396E-2],"split_indices":[1,0,0,2,4,1,2,0,0,0,0,0,0,0,0],"split_type":[0,0,0,0,0,0,0,0,0,0,0,0,0,0,0],"sum_hessian":[2E2,6.5E1,1.35E2,6E1,5E0,9.4E1,4.1E1,5.6E1,4E0,2E0,3E0,7.5E1,1.9E1,2.8E1,1.3E1],"tree_param":{"num_deleted":"0","num_feature":"10","num_nodes":"15","size_leaf_vector":"1"}},{"base_weights":[6.0113956E-4,-8.7966725E-2,1.0862786E-1,-1.3965307E-1,1.9180367E-2,4.7856934E-2,2.0449401E-1,-1.985743E-2,-7.377249E-3,-1.8325647E-2,6.427319E-3,-1.1401522E-2,8.904409E-3,-1.4541101E-3,2.3322567E-2],"categories":[],"categories_nodes":[],"categories_segments":[],"categories_sizes":[],"default_left":[0,0,0,0,0,0,0,0,0,0,0,0,0,0,0],"id":17,"left_children":[1,3,5,7,9,11,13,-1,-1,-1,-1,-1,-1,-1,-1],"loss_changes":[1.9326628E0,6.174012E-1,5.203681E-1,2.7648318E-1,3.4953105E-1,3.9017433E-1,2.2365499E-1,0E0,0E0,0E0,0E0,0E0,0E0,0E0,0E0],"parents":[2147483647,0,0,1,1,2,2,3,3,4,4,5,5,6,6],"right_children":[2,4,6,8,10,12,14,-1,-1,-1,-1,-1,-1,-1,-1],"split_conditions":[5.151604E-1,6.6414183E-1,5.815812E-1,5.5713755E-1,5.4096486E-2,2.0977987E-1,2.0186452E-2,-1.985743E-2,-7.377249E-3,-1.8325647E-2,6.427319E-3,-1.1401522E-2,8.904409E-3,-1.4541101E-3,2.3322567E-2],"split_indices":[1,0,2,2,1,0,0,0,0,0,0,0,0,0,0],"split_type":[0,0,0,0,0,0,0,0,0,0,0,0,0,0,0],"sum_hessian":[2E2,1.1E2,9E1,7.4E1,3.6E1,5.6E1,3.4E1,3.8E1,3.6E1,6E0,3E1,1.1E1,4.5E1,4E0,3E1],"tree_param":{"num_deleted":"0","num_feature":"10","num_nodes":"15","size_leaf_vector":"1"}},{"base_weights":[4.4269912E-4,-1.293988E-1,6.2043093E-2,-2.266509E-1,-9.3017474E-2,2.079098E-2,1.7720068E-1,-2.4093194E-2,9.229183E-5,-2.1433402E-2,-6.4118295E-3,-7.916108E-3,7.650969E-3,9.082071E-3,2.5853503E-2],"categories":[],"categories_nodes":[],"categories_segments":[],"categories_sizes":[],"default_left":[0,0,0,0,0,0,0,0,0,0,0,0,0,0,0],"id":18,"left_children":[1,3,5,7,9,11,13,-1,-1,-1,-1,-1,-1,-1,-1],"loss_changes":[1.615684E0,2.0889795E-1,6.4713347E-1,5.5472255E-2,1.5804872E-1,5.741149E-1,2.2944331E-1,0E0,0E0,0E0,0E0,0E0,0E0,0E0,0E0],"parents":[2147483647,0,0,1,1,2,2,3,3,4,4,5,5,6,6],"right_children":[2,4,6,8,10,12,14,-1,-1,-1,-1,-1,-1,-1,-1],"split_conditions":[2.6978672E-1,2.71719E-1,7.760317E-1,6.8791455E-1,2.8365364E-2,2.9340824E-1,5.0367695E-1,-2.4093194E-2,9.229183E-5,-2.1433402E-2,-6.4118295E-3,-7.916108E-3,7.650969E-3,9.082071E-3,2.5853503E-2],"split_indices":[1,0,1,3,1,2,0,0,0,0,0,0,0,0,0],"split_type":[0,0,0,0,0,0,0,0,0,0,0,0,0,0,0],"sum_hessian":[2E2,6.4E1,1.36E2,1.6E1,4.8E1,1.01E2,3.5E1,1.5E1,1E0,8E0,4E1,3.6E1,6.5E1,1.8E1,1.7E1],"tree_param":{"num_deleted":"0","num_feature":"10","num_nodes":"15","size_leaf_vector":"1"}},{"base_weights":[3.1299645E-4,-6.181282E-2,1.07769646E-1,-1.8834993E-1,-2.6121221E-2,6.435736E-2,1.9553034E-1,-2.256701E-2,-9.860664E-3,-8.146085E-3,4.7420138E-3,1.1593864E-3,1.4556109E-2,1.2568799E-2,2.8074086E-2],"categories":[],"categories_nodes":[],"categories_segments":[],"categories_sizes":[],"default_left":[0,0,0,0,0,0,0,0,0,0,0,0,0,0,0],"id":19,"left_children":[1,3,5,7,9,11,13,-1,-1,-1,-1,-1,-1,-1,-1],"loss_changes":[1.3485038E0,5.7316804E-1,2.693482E-1,7.152593E-2,4.1490775E-1,2.168266E-1,1.07545555E-1,0E0,0E0,0E0,0E0,0E0,0E0,0E0,0E0],"parents":[2147483647,0,0,1,1,2,2,3,3,4,4,5,5,6,6],"right_children":[2,4,6,8,10,12,14,-1,-1,-1,-1,-1,-1,-1,-1],"split_conditions":[5.8332E-1,2.71719E-1,6.8079793E-1,7.1921974E-1,5.62094E-1,8.518759E-1,6.66967E-1,-2.256701E-2,-9.860664E-3,-8.146085E-3,4.7420138E-3,1.1593864E-3,1.4556109E-2,1.2568799E-2,2.8074086E-2],"split_indices":[1,0,0,2,2,1,9,0,0,0,0,0,0,0,0],"split_type":[0,0,0,0,0,0,0,0,0,0,0,0,0,0,0],"sum_hessian":[2E2,1.27E2,7.3E1,2.7E1,1E2,5E1,2.3E1,1.8E1,9E0,5.7E1,4.3E1,3.1E1,1.9E1,1.4E1,9E0],"tree_param":{"num_deleted":"0","num_feature":"10","num_nodes":"15","size_leaf_vector":"1"}}]},"name":"gbtree"},"learner_model_param":{"base_score":"1.6806594E0","boost_from_average":"1","num_class":"0","num_feature":"10","num_target":"1"},"objective":{"name":"reg:squarederror","reg_loss_param":{"scale_pos_weight":"1"}}},"version":[2,1,1]}